{"bot1":{"w1":[[-0.16076810657978058,0.0672772228717804,-0.007913967594504356,-0.14181312918663025,0.4143792390823364,0.014972117729485035,0.09415821731090546,-0.06133805587887764,0.232366144657135,-0.7544052600860596,0.32483839988708496,-0.2597830593585968,0.18756265938282013,-0.35030367970466614,-0.13711068034172058,-0.772140383720398],[0.35454145073890686,0.32213079929351807,0.05592440068721771,0.45676153898239136,-0.5551100969314575,-0.08455078303813934,-0.054462797939777374,0.3321155905723572,0.1972758024930954,0.09675601869821548,0.17386971414089203,-0.39816808700561523,0.10975968092679977,-0.08925221860408783,-0.43813228607177734,-0.6537012457847595],[0.15233272314071655,0.06597039103507996,-0.1118040531873703,0.027084829285740852,0.449979692697525,0.7786754965782166,-0.6134322285652161,-0.7235891819000244,0.6112819314002991,-0.8214179277420044,0.4824743866920471,-0.39823728799819946,-0.05984054505825043,0.7485356330871582,-0.4929388761520386,-0.4260248839855194],[0.22175940871238708,-0.07965141534805298,0.08217829465866089,-0.06889118254184723,-0.3686857223510742,0.1038559153676033,0.20645497739315033,0.04844451695680618,0.2314048856496811,0.12325134873390198,-0.18750090897083282,-0.4180286228656769,0.31147921085357666,-0.10712536424398422,-0.3073645830154419,0.019527744501829147],[-0.5371910333633423,0.8777033090591431,0.6428233981132507,-0.6768238544464111,-0.12040147185325623,-0.7405076026916504,0.41658133268356323,0.1101827323436737,0.06716734915971756,0.11659160256385803,0.6349605917930603,-0.051343705505132675,1.0559078454971313,0.5818654298782349,0.07270144671201706,0.2565802037715912]],"b1":[0.4123327136039734,-0.197578564286232,0.04496356472373009,0.4253450930118561,0.19626617431640625,0.3149454891681671,0.0905829668045044,0.32289427518844604,-0.025933943688869476,-0.03515727445483208,0.029836686328053474,0.3111167550086975,-0.01648091897368431,-0.12822039425373077,0.014865693636238575,0.13741916418075562],"w2":[[-0.023643799126148224,-0.3676554262638092,0.38324272632598877,-0.284329354763031,0.005043991841375828,0.3432048559188843,-0.35266467928886414,-0.32679110765457153,0.7558486461639404,-0.37097886204719543,-0.08103945851325989,0.7368831634521484,0.26732534170150757,-0.04174375906586647,0.6186486482620239,0.10410872846841812],[0.053928442299366,0.10454744845628738,-0.20981544256210327,0.4548952877521515,-0.035718005150556564,-0.278014212846756,0.3406268358230591,0.3072546124458313,-0.23608888685703278,-0.07087849080562592,0.41257980465888977,-0.5127982497215271,-0.4255191385746002,0.22418299317359924,-0.06869290769100189,0.4268074929714203],[0.18416933715343475,0.021198034286499023,-0.07829651981592178,0.2874191105365753,-0.44183164834976196,0.04455631598830223,0.6477513313293457,0.2477761209011078,-0.2119072526693344,0.4785694479942322,0.14002546668052673,-0.019877128303050995,-0.2536622881889343,-0.26039451360702515,-0.44698458909988403,-0.14509017765522003],[-0.2070195972919464,-0.16866561770439148,0.1836407631635666,-0.8198797702789307,-0.1257915198802948,0.45431143045425415,-0.17685119807720184,-0.6192046999931335,0.19141831994056702,-0.48670053482055664,-0.48755693435668945,-0.0022802765015512705,0.35936540365219116,-0.32338693737983704,0.7866121530532837,0.2815363109111786],[-0.2183365523815155,0.2395937293767929,0.7163756489753723,-0.34246307611465454,-0.06130871921777725,0.57492995262146,-0.14659351110458374,-0.69734126329422,-0.8171369433403015,0.2148119956254959,0.09779012203216553,0.439799040555954,-0.16987597942352295,-0.17171703279018402,0.2662627696990967,-0.3684985041618347],[-0.12136805057525635,0.16379886865615845,0.734264612197876,-0.015917684882879257,-0.2542649507522583,-0.046176303178071976,-0.4765784740447998,-0.1761711835861206,-0.6854286789894104,-0.7769875526428223,-0.4840672016143799,0.9039151072502136,0.6396011710166931,0.17651662230491638,0.7438833713531494,-0.2902277112007141],[0.007884291931986809,-0.26436224579811096,0.24298319220542908,0.11550692468881607,0.36555203795433044,0.12948910892009735,0.3910159170627594,0.15672901272773743,0.22529762983322144,0.061165571212768555,-0.4504009187221527,0.10485619306564331,0.17225845158100128,-0.13939377665519714,-0.3701689839363098,0.11027976870536804],[-0.08672651648521423,0.14184869825839996,0.2679644525051117,-0.2093246430158615,-0.3727071285247803,0.4729006886482239,0.2005104422569275,-0.4210738241672516,0.2372162938117981,-0.12339241057634354,-0.8297562003135681,0.3633264899253845,0.28523585200309753,-0.03151477128267288,-0.4439941644668579,0.1760287582874298],[0.18828682601451874,-0.2779024541378021,-0.3099665641784668,0.1747620701789856,-0.18759389221668243,-0.15284065902233124,0.2693635821342468,0.10022925585508347,-0.3181414306163788,-0.6211528182029724,0.4956700801849365,-0.3256458044052124,0.13785211741924286,-0.39391225576400757,0.6863319277763367,0.5017066597938538],[-0.5569365620613098,-0.005398514214903116,0.32318487763404846,0.08973027020692825,0.17245160043239594,0.10869358479976654,-0.20873573422431946,0.2140883207321167,-0.22568215429782867,-0.7253617644309998,-0.08936716616153717,0.48520946502685547,0.9463882446289062,-0.25966817140579224,0.3587404787540436,-0.28122514486312866],[0.14620669186115265,-0.30243685841560364,-0.20633041858673096,0.05449929088354111,-0.28859853744506836,0.07301796972751617,0.506346583366394,0.4795372784137726,0.040773529559373856,0.2488613724708557,0.3153535723686218,0.3052026629447937,-0.04059172049164772,-0.010290133766829967,-0.08662708848714828,0.38085946440696716],[0.30201759934425354,-0.005403288174420595,-0.5361833572387695,0.1413109302520752,-0.08946429193019867,-0.16385114192962646,0.3793288469314575,0.9436156153678894,0.4534079432487488,-0.08477093279361725,-0.6063587665557861,-0.11215178668498993,-1.178527593612671,0.04850170761346817,0.3850528299808502,-0.29786962270736694],[0.22915950417518616,-0.10822340846061707,0.12086182832717896,-0.011417574249207973,0.09984420984983444,-0.3874603807926178,0.7696702480316162,0.3169449269771576,-0.1372278481721878,0.37672799825668335,0.2668832242488861,-0.4729718863964081,0.09558045864105225,-0.3111409842967987,-0.6496988534927368,-0.21976402401924133],[0.32155105471611023,-0.02488522231578827,-0.3302799165248871,0.8253718614578247,-0.05316884070634842,0.1562739461660385,0.917116105556488,0.7242217063903809,-0.570345401763916,-0.6337085366249084,0.7413625717163086,-0.38847440481185913,-0.016516348347067833,-0.160695418715477,0.13811177015304565,0.16240814328193665],[0.1649145483970642,0.02647760510444641,-0.5283685922622681,0.7754827737808228,-0.20628038048744202,0.0881064236164093,-0.08426879346370697,-0.13055896759033203,0.21452350914478302,0.2999928891658783,0.28618964552879333,-0.12645269930362701,-0.4560307264328003,0.09669642895460129,0.4436972141265869,0.06494065374135971],[0.27423742413520813,-0.07172852754592896,-1.250058650970459,0.759310245513916,0.12984080612659454,-1.0356636047363281,0.6022466421127319,0.7803452610969543,1.564483404159546,-0.5965465903282166,-0.26059073209762573,-1.3104031085968018,-0.7472960352897644,-0.1361204832792282,0.20525000989437103,0.9461329579353333]],"b2":[0.14973893761634827,-0.021681074053049088,0.2508713901042938,-0.0800623670220375,-0.015248770825564861,0.13350501656532288,-0.011347195133566856,-0.15850712358951569,0.18007120490074158,0.04321248084306717,-0.11334896087646484,0.2974753975868225,0.15299001336097717,-0.026876702904701233,0.2711770236492157,-0.030579330399632454],"w3":[[0.2840174734592438,-0.670616626739502,-0.254733145236969],[-0.274232417345047,0.3528202176094055,0.058770399540662766],[-0.9902099370956421,0.052680958062410355,1.101180911064148],[0.3972688615322113,-0.35112157464027405,-0.4302395284175873],[-0.1687365472316742,0.20447710156440735,-0.0871409997344017],[-0.0200357548892498,-0.5412959456443787,0.5224473476409912],[0.7584182024002075,0.1251329630613327,-0.2333686649799347],[0.9850879907608032,-0.006464280653744936,-0.7018100619316101],[0.6998899579048157,0.017622217535972595,-0.7369871735572815],[-0.638617217540741,-0.26232245564460754,0.5728832483291626],[0.6295324563980103,0.3473093509674072,-1.6880583763122559],[-0.9492794871330261,-0.34152522683143616,0.8426671624183655],[-0.9269233345985413,-0.3628500998020172,0.6153749227523804],[0.2512212097644806,0.21124938130378723,-0.2608645260334015],[-1.300205945968628,0.2465650588274002,1.057654619216919],[-0.0742194652557373,-0.00445439200848341,-0.6079617142677307]],"b3":[0.04691733419895172,-0.11854316294193268,0.13098376989364624]},"bot2":{"w1":[[0.36145898699760437,0.5405738949775696,0.6865379214286804,-0.3879720866680145,-0.027498755604028702,-0.06017373874783516,-0.10893870145082474,0.07198391854763031,0.20849058032035828,0.1965324729681015,-0.024838216602802277,0.18931202590465546,-0.19860215485095978,0.0906166285276413,-0.08729270845651627,0.411719411611557],[-0.009163189679384232,-0.25801751017570496,0.5292626023292542,-0.7731074690818787,0.02087891288101673,-0.2318219244480133,-0.016612950712442398,-0.07033465057611465,-0.5355478525161743,-0.06645037233829498,0.21832406520843506,0.1589069813489914,0.5822114944458008,-0.12227267026901245,0.9276030659675598,-0.11950542032718658],[0.31421971321105957,-0.9424396753311157,-0.13683663308620453,-0.2854316234588623,-0.9019309282302856,-0.31988951563835144,-0.5711584687232971,-1.2037022113800049,0.42772331833839417,-0.3018065392971039,0.14889732003211975,-0.07914170622825623,-0.602438747882843,-0.35883986949920654,0.2685147225856781,0.602762758731842],[0.16992349922657013,-0.3334485590457916,-0.019027143716812134,-0.5858179926872253,0.026753924787044525,0.07393147051334381,0.01964818872511387,-0.03644673153758049,-0.5308884382247925,0.11573833227157593,-0.19912023842334747,0.056933000683784485,0.22317147254943848,-0.08515597879886627,0.9833932518959045,-0.013107595965266228],[0.422321081161499,0.39824795722961426,-0.685888409614563,-0.03202042356133461,-0.6130873560905457,0.08762342482805252,-0.9708237051963806,0.7654227614402771,0.283600777387619,-0.37859126925468445,-0.5018429756164551,0.5619322657585144,0.3523937165737152,-0.8899179100990295,-0.5274853110313416,0.03691069036722183]],"b1":[0.03990989178419113,-0.05876907333731651,-0.038555510342121124,0.3781030774116516,0.2865160405635834,0.205993190407753,0.48517149686813354,-0.06729815155267715,0.029207000508904457,-0.1338316649198532,0.4483940601348877,0.10755889117717743,-0.07863028347492218,0.4305170774459839,-0.021789785474538803,0.5461179614067078],"w2":[[-0.3500126600265503,-0.00020124830189161003,-0.10947978496551514,0.2812577486038208,0.15643678605556488,0.5104773640632629,0.1858714371919632,-0.13123475015163422,-0.3880222737789154,0.3750515580177307,0.6469915509223938,-0.30585071444511414,-0.05241017788648605,0.34409618377685547,0.3912253677845001,0.19550594687461853],[0.14200305938720703,-0.22781981527805328,0.10172276198863983,0.6515451073646545,-0.44046106934547424,-0.06134506314992905,0.8309686183929443,-0.2414473593235016,1.2028486728668213,-0.49767231941223145,0.5115941762924194,-0.4618901014328003,0.5226103663444519,0.37430793046951294,0.7588794231414795,-0.1463758498430252],[-0.04689893499016762,-0.010760633274912834,0.0002111401699949056,-0.134042888879776,-0.0012937021674588323,0.49759626388549805,-0.12491852045059204,0.7635466456413269,-0.15083114802837372,-0.05636659264564514,-0.2069525569677353,0.22030951082706451,-0.37340882420539856,-0.5759740471839905,-0.5119801759719849,0.678697943687439],[0.020672263577580452,-1.2418959140777588,0.19084711372852325,0.17077410221099854,-0.1082533746957779,0.7139424085617065,0.48510584235191345,0.6023596525192261,0.32277408242225647,0.15943971276283264,0.020381562411785126,-0.12476570904254913,0.6107216477394104,-0.448345422744751,-0.475244402885437,0.6097830533981323],[-0.4657125473022461,0.11864408850669861,0.11328621208667755,-0.2858293354511261,0.23952138423919678,0.7287073135375977,-0.6407381296157837,1.5223681926727295,-0.25338616967201233,-0.1502683013677597,0.20579124987125397,0.03745400160551071,-0.4421202838420868,-0.03415751829743385,-0.2282303124666214,1.2867647409439087],[0.4939664602279663,-0.2139076441526413,0.036698225885629654,0.16867366433143616,0.19701606035232544,0.032042574137449265,0.15537004172801971,0.388188898563385,-0.1574438065290451,-0.1903572380542755,0.1382531076669693,0.34032168984413147,-0.23112329840660095,-0.18552762269973755,-0.024531250819563866,0.22998283803462982],[-0.11909729987382889,1.3648935556411743,-0.09057314693927765,-1.4266313314437866,0.44356733560562134,0.785709798336029,-1.4297418594360352,1.5937663316726685,-1.6372747421264648,-0.3533056974411011,-1.3673059940338135,0.149699866771698,-1.3487317562103271,-1.302587628364563,-1.4133341312408447,1.4967031478881836],[-0.3804002106189728,-1.7493903636932373,0.06178430840373039,0.33741164207458496,-0.23664590716362,0.18658845126628876,0.7056050896644592,0.5040059685707092,0.8224547505378723,0.12725681066513062,0.3082651197910309,-0.00336930132471025,0.5786215662956238,0.4106380045413971,0.3220426142215729,0.6716972589492798],[-0.16784444451332092,0.14222316443920135,-0.21695858240127563,0.2808389365673065,-0.06728491932153702,-0.050607215613126755,-0.28024882078170776,0.04643106460571289,-0.16365818679332733,0.1527557075023651,0.3489716053009033,-0.2133716642856598,-0.3151482939720154,0.7587674856185913,0.4235420525074005,0.06602438539266586],[-0.19012102484703064,0.06708699464797974,-0.048552438616752625,-0.12454177439212799,0.6639067530632019,0.46158578991889954,0.03301713243126869,0.34873101115226746,-0.8010385632514954,0.24576272070407867,-0.5132185816764832,-0.07019788026809692,-0.6929417848587036,0.6467083692550659,-0.7926817536354065,0.17497479915618896],[-0.043013282120227814,0.13551227748394012,-0.1808778941631317,-0.5161370635032654,0.10109595209360123,0.6826223731040955,-1.2009211778640747,0.48199227452278137,-0.5502521991729736,-0.026821060106158257,-0.43589097261428833,-0.26037269830703735,-0.1098659411072731,-0.5614919662475586,-0.3986721932888031,0.25838503241539],[0.052962761372327805,0.40740370750427246,-0.39179909229278564,0.3082876205444336,0.2003973424434662,0.12611453235149384,0.308626651763916,0.19472075998783112,0.2683987021446228,0.2860014736652374,-0.15147799253463745,-0.1409001648426056,0.47839635610580444,0.19443392753601074,0.4219133257865906,-0.11811712384223938],[-0.17891770601272583,-0.2317076325416565,-0.36192649602890015,0.2147134393453598,-0.2947511374950409,-0.16985973715782166,0.5440347790718079,-0.3298915922641754,0.8964760899543762,-0.3767598569393158,0.5620430111885071,0.2751191258430481,0.4290388524532318,0.07866837829351425,0.1889505535364151,-0.5026001334190369],[0.1301066130399704,1.0186436176300049,-0.12509958446025848,-0.384120911359787,0.5326109528541565,0.2855040729045868,-0.7496156096458435,0.30250048637390137,-1.2915899753570557,0.3064829409122467,-0.9322943687438965,-0.2938849627971649,-1.1140366792678833,-0.7997746467590332,-0.43576371669769287,0.15343040227890015],[-0.046524349600076675,-1.5582491159439087,0.23199909925460815,0.11022061109542847,0.22265543043613434,-0.032657746225595474,-0.08063116669654846,-0.2300931066274643,-0.21690940856933594,0.24979834258556366,0.07944008708000183,-0.15933585166931152,0.6013426780700684,-0.8380850553512573,-0.40948060154914856,-0.1135503277182579],[-0.1325787901878357,0.5829435586929321,-0.11634508520364761,-0.035696808248758316,0.3076760768890381,0.4318487048149109,-1.093862771987915,0.20348839461803436,-0.8825777769088745,0.16259340941905975,-0.11836132407188416,0.30058902502059937,-0.7221963405609131,-0.007329906336963177,0.04226694628596306,0.09181112051010132]],"b2":[-0.005227970890700817,0.1637180745601654,-0.0794464498758316,-0.15350142121315002,0.17249995470046997,0.1820456087589264,-0.16060930490493774,0.10469415038824081,-0.09669579565525055,0.11188779026269913,-0.11512142419815063,-0.11116176098585129,0.0679277777671814,0.04159669950604439,0.07058361172676086,0.1376410871744156],"w3":[[0.011681560426950455,0.3033127784729004,-0.1166127398610115],[1.7871869802474976,0.09797418862581253,-1.9051433801651],[0.15709346532821655,0.350150465965271,0.1731928586959839],[0.6010184288024902,0.16267129778862,-1.1330797672271729],[0.12406566739082336,-0.46914198994636536,0.13035465776920319],[-0.08777141571044922,-0.13341940939426422,0.7701877951622009],[2.638338088989258,-1.166337013244629,-2.029071092605591],[-0.8125799298286438,0.5203496217727661,1.1559886932373047],[1.5906310081481934,0.3997855484485626,-1.9112768173217773],[-0.04547455906867981,-0.6860549449920654,0.10095901787281036],[0.46765512228012085,0.5681796073913574,-1.2401987314224243],[0.17061316967010498,0.08733661472797394,-0.07540763914585114],[0.8982129096984863,0.22954654693603516,-1.241456151008606],[1.3933746814727783,-0.7080785632133484,-0.4903813898563385],[1.189170002937317,0.33739757537841797,-0.9066066145896912],[-1.280442714691162,0.1589747816324234,0.880193829536438]],"b3":[-0.03628823906183243,-0.10282979905605316,0.12909650802612305]}}